//Numpy array shape [64, 32]
//Min -0.496093750000
//Max 0.496093750000
//Number of zeros 19

#ifndef W5_H_
#define W5_H_

#ifndef __SYNTHESIS__
weight5_t w5[2048];
#else
weight5_t w5[2048] = {1.34375, -0.40625, 0.81250, 1.37500, -1.25000, -0.50000, 3.34375, -0.37500, -0.43750, -0.15625, -2.43750, 1.81250, 0.53125, -0.53125, -0.50000, 3.12500, 3.06250, 1.18750, -1.25000, 0.25000, 0.59375, -0.25000, -2.62500, 2.31250, -0.56250, 0.68750, 0.37500, -0.62500, -0.68750, 0.96875, 2.00000, 0.75000, -2.31250, -1.18750, 1.03125, 0.18750, -1.03125, 0.12500, -2.28125, 1.93750, 1.87500, 1.56250, -0.87500, -0.03125, 2.09375, 0.00000, -0.18750, -0.37500, 0.78125, 2.00000, -1.81250, -1.59375, -0.06250, 0.25000, -2.37500, -0.59375, 3.31250, 1.93750, 1.53125, 0.21875, -0.46875, -1.56250, 2.31250, 0.06250, 0.09375, 1.46875, -2.06250, -0.18750, 2.15625, -0.53125, 1.03125, -0.15625, 1.78125, 0.81250, -1.59375, -0.53125, 0.81250, 2.31250, 0.12500, -2.50000, -2.34375, -0.31250, -3.03125, -3.53125, 0.96875, -0.46875, 2.56250, -0.43750, -1.65625, 0.78125, -1.21875, -0.37500, 0.53125, -1.81250, -0.75000, 0.18750, -1.21875, 0.46875, 0.75000, -0.68750, -1.15625, 0.62500, -0.03125, -0.18750, 1.06250, 0.31250, -0.31250, -0.03125, -0.31250, 1.25000, 0.90625, -0.81250, 1.59375, -2.18750, 1.06250, -0.78125, -1.87500, -0.81250, -0.03125, -0.59375, -1.40625, -0.65625, -0.12500, 0.31250, 0.68750, 0.09375, -0.12500, -1.18750, -0.59375, -0.21875, 0.00000, 0.87500, 1.03125, -1.65625, 2.18750, 0.31250, -0.06250, 1.68750, -1.46875, -0.03125, 1.28125, -1.50000, -3.81250, 0.28125, -1.25000, 0.87500, 0.56250, -2.75000, -0.87500, 2.12500, -0.21875, -2.15625, 0.46875, -2.37500, 0.56250, -0.96875, 0.68750, 3.18750, -0.09375, -0.15625, 3.37500, -1.21875, 2.78125, 0.31250, 1.75000, 0.12500, 0.28125, -0.53125, -1.00000, -0.53125, 1.62500, 2.65625, -1.84375, -0.15625, 1.18750, 0.56250, -1.65625, 3.15625, -0.96875, 0.59375, 0.78125, 3.96875, 1.50000, -1.65625, 1.06250, 1.87500, 1.43750, -0.50000, -1.65625, 0.71875, 1.03125, 0.50000, -1.65625, 0.40625, -2.28125, -0.25000, 3.96875, -1.12500, 0.53125, 0.40625, -2.56250, 1.56250, -2.56250, -1.68750, -0.12500, 0.56250, -0.09375, 0.43750, 0.12500, 1.81250, 2.34375, -0.12500, -1.96875, -1.62500, -1.43750, -1.18750, -0.84375, 0.84375, 1.28125, 2.31250, 0.15625, 2.71875, -0.43750, -1.90625, -0.06250, -0.40625, -0.43750, -0.06250, -0.34375, 1.21875, -0.78125, 1.25000, 1.71875, 1.12500, -0.09375, 0.93750, 1.09375, -0.15625, 3.96875, -1.59375, 2.09375, 1.37500, 1.12500, 0.53125, 1.09375, -1.62500, 3.12500, -2.31250, 2.50000, 1.18750, 1.25000, -1.00000, -0.71875, -0.53125, 1.93750, -0.68750, 1.34375, -0.87500, -1.53125, -3.68750, 3.00000, 1.03125, -1.25000, 0.84375, -1.37500, 1.87500, -0.90625, 0.21875, -0.28125, 1.28125, 1.46875, -1.15625, 1.53125, 1.06250, 0.18750, 0.50000, -0.87500, -0.34375, -0.09375, 2.15625, 0.71875, -1.25000, 0.34375, -0.40625, 0.03125, 0.18750, 0.75000, -0.71875, 0.21875, -3.37500, 0.62500, 0.62500, -0.18750, -3.18750, -0.56250, -1.46875, 1.90625, 0.93750, -1.75000, 1.43750, -1.12500, 3.25000, 1.12500, 0.12500, -0.75000, -1.40625, 0.96875, -0.46875, 1.75000, 1.81250, -1.46875, -0.28125, 1.06250, 0.15625, 0.78125, -3.00000, 0.53125, -1.03125, -1.18750, 0.03125, 1.15625, -0.43750, 1.03125, 0.09375, 3.84375, -0.46875, -0.56250, -1.00000, 0.96875, -0.59375, -0.28125, -1.65625, -0.25000, 0.40625, -0.28125, 0.81250, 0.78125, -3.25000, 0.84375, -0.25000, 0.28125, 0.71875, -0.81250, -2.62500, -1.87500, 1.00000, 1.84375, -0.46875, 0.21875, 1.87500, -0.59375, -0.37500, 1.15625, 0.37500, 0.65625, 1.28125, -2.18750, -1.25000, 0.68750, 0.75000, -1.96875, 2.40625, 1.06250, 0.00000, 0.31250, 0.59375, 1.12500, -1.15625, 0.12500, -2.46875, 1.21875, -1.40625, 1.53125, 2.53125, -0.12500, -1.25000, -0.21875, -0.71875, -2.43750, 0.21875, -0.65625, -0.71875, -1.81250, -1.12500, 1.93750, 0.53125, -2.31250, 3.93750, -0.78125, -0.15625, 0.21875, 1.59375, -0.15625, -1.96875, 1.68750, 1.81250, -0.53125, 0.84375, 1.18750, 1.62500, 0.43750, -0.84375, -1.15625, 1.62500, 1.43750, -1.90625, -0.62500, 0.50000, -0.68750, 2.21875, -1.43750, 0.40625, 0.75000, -0.37500, -2.03125, -1.37500, 2.59375, 0.09375, -1.03125, -0.28125, 2.53125, -0.40625, 2.12500, -2.68750, 0.31250, -0.93750, -2.12500, 0.68750, -1.75000, 0.43750, 1.87500, 0.34375, -1.65625, 0.03125, 2.46875, -1.03125, 0.00000, -1.15625, 1.25000, -1.53125, 0.87500, 0.93750, 1.53125, -1.21875, -2.53125, 0.37500, 0.12500, 2.28125, 0.25000, -0.81250, -0.09375, 2.15625, 1.71875, 0.68750, -1.06250, 1.59375, 3.37500, -1.18750, 0.09375, -1.28125, -0.21875, 2.15625, -0.59375, -0.06250, 1.46875, 1.96875, -0.43750, -1.93750, -1.59375, -0.59375, -0.56250, 2.18750, 0.46875, 0.59375, 0.21875, -1.62500, 2.43750, -0.56250, -0.96875, 1.00000, -1.09375, -1.71875, -0.12500, -0.46875, 1.06250, 1.37500, 1.59375, -0.03125, 3.09375, 0.43750, 1.28125, 0.50000, -0.06250, -0.18750, 0.40625, 0.00000, -1.18750, 0.34375, -2.56250, -3.03125, -0.12500, 1.84375, 1.18750, -0.96875, -2.53125, 0.78125, -3.96875, -0.59375, 2.87500, -1.93750, 0.46875, 2.50000, 2.12500, -1.06250, 0.59375, 0.71875, 0.53125, -0.53125, 2.59375, 0.15625, 2.06250, -1.96875, 2.03125, 2.62500, 0.34375, 1.87500, -2.62500, -1.68750, -1.25000, -0.46875, 1.50000, 1.50000, -2.18750, 2.90625, 0.81250, -0.31250, 1.87500, 1.12500, 0.84375, -0.96875, -2.59375, -1.09375, 2.03125, -1.53125, 0.28125, 2.40625, -0.06250, -0.81250, 1.96875, 0.90625, 1.21875, 1.03125, 2.40625, 1.03125, 2.15625, 0.06250, 0.93750, -1.78125, 1.28125, 2.65625, -0.25000, 0.18750, 1.03125, 1.28125, 0.34375, 3.31250, -0.81250, -1.87500, 0.71875, 0.62500, 1.43750, 1.28125, -1.00000, 0.81250, 1.75000, -2.46875, -2.09375, 0.28125, -1.56250, 0.96875, 0.34375, 0.96875, 3.09375, 0.90625, 2.34375, 3.25000, 1.43750, -0.71875, -2.50000, 0.84375, 0.28125, 1.68750, -2.62500, -1.15625, 2.25000, -0.43750, -1.12500, -0.59375, 0.37500, -2.03125, 2.31250, 0.96875, -1.53125, 0.62500, 0.71875, 0.53125, -2.59375, 2.03125, -0.90625, -0.12500, 1.40625, 0.21875, 2.40625, 0.90625, 2.25000, -0.62500, 0.81250, -0.90625, 0.34375, -2.56250, -0.43750, 1.53125, -0.71875, -0.18750, -2.31250, -3.09375, -0.62500, 0.46875, 0.96875, -0.06250, 1.62500, -0.37500, -0.25000, -2.53125, 1.46875, 2.09375, 2.31250, 2.21875, 0.40625, -1.18750, -0.15625, -0.06250, 1.28125, 1.12500, 1.37500, -2.59375, 0.40625, 1.53125, -0.53125, -0.31250, 0.09375, -1.43750, 3.78125, -1.06250, 2.46875, -1.93750, 0.62500, -1.87500, 1.03125, -2.37500, 1.90625, 1.34375, -0.18750, -0.12500, -0.12500, 2.40625, 1.15625, -1.03125, 1.43750, -0.37500, -0.81250, 1.56250, 2.53125, 1.43750, -1.12500, 1.40625, 0.65625, -0.81250, 1.34375, 0.75000, 0.46875, -0.59375, 2.53125, 1.31250, -1.68750, -3.00000, 1.65625, 0.34375, 0.56250, 2.87500, -1.59375, 1.62500, -1.46875, 2.06250, -1.50000, -2.00000, -0.78125, 0.31250, -0.09375, 0.03125, 0.59375, 0.84375, 3.53125, 3.59375, 1.84375, -0.90625, 0.18750, 1.65625, -1.03125, 0.46875, 0.78125, -1.71875, 0.53125, 2.03125, 2.56250, 1.53125, 0.50000, -0.96875, 1.84375, 3.00000, 1.00000, 0.93750, 0.53125, -2.59375, 2.34375, 2.43750, -1.84375, -0.37500, 0.59375, 1.34375, -0.90625, 0.43750, -0.12500, -0.18750, -0.25000, -0.93750, 0.93750, 0.34375, -1.59375, -1.03125, -0.93750, -1.31250, -2.03125, 0.21875, 0.12500, 1.65625, 3.37500, 1.43750, -0.50000, 3.00000, 1.34375, -1.12500, -2.03125, 0.53125, 1.06250, -0.93750, 0.18750, -1.78125, 1.50000, -0.15625, -2.75000, 0.43750, 0.28125, 3.21875, 1.46875, -1.15625, -0.53125, -0.81250, 1.43750, -2.37500, 0.93750, 1.56250, -0.34375, -0.46875, -1.21875, 0.56250, -1.71875, -0.75000, -1.15625, 1.71875, 0.87500, 1.56250, 1.09375, 1.87500, -0.03125, -0.96875, -0.75000, -0.93750, 1.96875, -0.03125, -0.09375, 1.75000, 2.56250, 1.28125, 0.15625, 0.21875, 1.96875, 0.09375, 2.00000, 1.84375, 2.50000, -0.75000, -0.90625, 2.62500, -0.96875, -0.09375, -0.40625, 2.28125, -0.06250, 1.93750, 1.37500, 1.15625, -0.65625, 2.46875, 0.46875, 0.56250, 2.81250, -0.03125, 1.12500, -2.75000, -1.28125, 0.65625, 0.31250, -3.71875, -0.06250, -1.37500, -0.34375, 1.90625, -0.84375, 0.37500, 0.15625, -0.25000, 0.53125, 0.87500, 0.53125, -2.00000, -0.37500, -1.96875, 0.96875, -1.71875, 3.03125, 1.15625, 0.71875, -0.46875, -2.21875, 2.81250, -0.62500, -1.37500, -1.00000, -0.25000, 0.15625, 0.96875, -0.15625, 0.31250, 0.68750, -0.90625, -0.31250, 0.31250, 1.43750, 0.28125, -1.68750, -1.37500, 1.84375, 0.65625, -0.75000, 2.81250, -0.03125, -0.56250, 1.65625, -0.06250, 1.00000, 0.37500, -0.81250, -0.81250, -1.25000, 0.03125, 0.28125, -0.34375, 1.34375, 1.00000, -1.46875, 0.21875, -1.53125, 0.90625, -1.75000, 1.87500, -0.21875, -3.53125, -0.06250, 0.12500, -1.09375, 2.50000, 2.65625, 3.81250, 0.53125, -0.28125, 2.75000, -0.81250, -0.06250, -1.40625, 2.59375, 0.09375, 0.25000, 0.40625, -1.06250, 0.09375, -0.59375, 0.25000, 3.12500, -1.03125, 1.53125, 0.43750, 3.46875, -0.96875, 1.06250, -0.09375, 2.46875, -2.15625, 0.71875, -1.75000, -0.31250, 2.21875, 1.59375, 2.96875, -1.09375, -0.37500, 3.65625, 0.62500, 0.62500, -0.09375, -0.34375, 1.68750, 1.31250, 0.56250, 0.15625, 2.21875, 1.68750, 2.53125, 1.03125, 1.62500, -1.78125, 0.25000, -1.65625, 0.15625, 1.62500, 0.78125, -0.25000, -1.68750, 2.06250, 1.34375, -1.40625, -0.28125, 0.18750, 0.40625, -0.28125, -0.65625, 1.90625, -0.06250, 1.96875, 1.12500, 3.96875, -1.12500, 1.34375, -1.40625, -1.56250, 0.81250, 2.21875, 1.90625, 2.37500, 1.21875, -0.81250, 1.06250, 0.00000, -1.28125, 1.56250, 1.21875, 0.06250, 3.50000, 0.84375, 1.40625, 2.12500, -1.09375, 2.93750, -2.00000, 2.78125, 2.21875, 0.96875, -1.59375, -2.37500, -1.50000, 3.71875, 0.93750, 1.18750, -0.12500, 1.81250, -0.87500, 2.00000, 2.18750, 2.37500, -0.93750, 1.21875, 0.28125, -0.93750, 0.68750, -1.12500, 0.78125, 0.78125, 1.93750, 1.71875, 1.28125, 1.50000, 2.43750, 0.12500, 0.12500, -0.56250, 0.15625, -0.37500, 0.93750, -0.37500, 1.71875, 0.78125, -0.84375, 1.68750, 1.59375, 1.12500, 2.18750, 2.78125, 1.40625, -0.87500, 0.06250, 0.43750, 0.65625, 3.84375, -0.56250, -1.03125, 0.31250, 0.68750, -1.59375, 1.06250, 0.59375, 1.18750, 2.46875, 2.43750, -1.15625, 3.50000, 1.03125, -0.87500, 0.75000, 1.12500, -1.12500, 2.59375, -0.62500, -0.15625, 1.00000, 0.62500, -1.56250, 0.50000, -2.28125, 1.81250, -1.62500, -0.59375, 0.96875, -1.12500, 3.43750, -0.50000, 1.34375, 1.25000, -1.21875, -0.62500, 0.46875, 0.59375, -1.34375, 0.59375, 0.65625, 1.93750, 1.18750, 0.56250, 1.18750, -0.06250, -0.90625, -0.12500, -1.59375, -1.87500, -0.06250, 1.90625, 1.71875, 3.56250, 0.15625, 0.31250, -0.09375, -0.71875, -0.15625, 1.37500, -2.75000, 1.84375, -0.34375, -0.25000, 0.75000, 2.56250, -0.93750, -0.12500, 1.96875, -1.68750, -0.71875, -1.75000, -0.90625, -0.56250, 2.28125, 0.34375, 0.93750, 1.06250, 2.15625, 1.25000, -1.31250, 0.21875, 3.18750, -0.03125, 1.03125, 1.53125, 3.18750, 0.00000, 2.75000, 0.75000, 0.81250, 3.28125, -0.78125, -0.90625, -1.18750, -0.09375, -1.50000, -1.25000, -0.78125, 2.12500, 3.96875, 1.50000, -1.06250, 0.12500, 0.31250, -1.68750, -0.53125, 1.78125, -0.34375, -2.03125, 1.65625, -0.12500, 0.18750, -1.59375, 1.87500, -0.12500, 0.03125, -1.71875, 2.65625, -0.93750, -1.15625, -0.90625, 1.87500, 2.12500, -0.06250, 1.09375, -1.93750, -0.81250, -2.00000, -2.40625, -0.90625, 2.28125, 1.34375, -0.28125, -2.43750, 1.59375, -0.75000, -1.06250, -1.56250, -1.28125, -1.53125, -1.40625, 1.15625, 0.59375, -0.25000, 2.00000, -1.78125, -0.71875, -0.31250, -1.62500, 1.75000, 1.50000, -0.78125, 0.90625, 0.43750, -0.03125, 1.96875, 1.21875, 0.90625, -1.18750, -0.53125, -0.68750, -0.53125, -1.53125, 1.06250, 0.43750, 0.96875, 0.18750, 0.03125, 1.96875, 0.62500, -1.65625, -0.68750, -0.50000, -1.34375, 2.18750, -1.93750, 1.34375, 1.90625, 0.25000, -0.84375, 0.34375, 1.65625, 0.34375, -1.18750, 0.31250, 1.96875, 0.25000, -2.15625, -0.56250, -1.21875, 2.78125, 0.28125, 1.65625, 0.53125, 0.75000, -2.75000, -1.50000, -0.21875, 0.12500, 0.15625, -0.87500, -2.06250, 1.31250, -0.37500, 0.96875, 1.28125, 0.78125, 2.43750, 0.37500, 2.09375, 1.68750, 2.03125, 2.90625, -0.78125, 1.56250, 1.84375, 1.21875, 0.31250, -1.12500, -0.31250, 1.65625, 2.84375, 1.65625, 1.37500, -1.96875, 3.43750, -0.31250, 0.06250, 0.78125, 2.78125, -1.50000, 0.65625, 2.21875, -0.40625, 0.81250, 0.96875, 0.71875, 1.59375, 1.03125, -0.28125, -1.37500, -1.03125, 1.65625, -2.59375, 0.93750, 2.00000, -1.00000, -0.53125, 0.40625, 0.00000, 0.25000, 1.50000, 2.53125, 1.00000, 1.06250, 1.09375, -0.81250, 0.75000, -1.15625, 0.21875, -0.59375, 0.81250, 0.31250, -1.93750, -1.12500, 0.31250, 1.68750, 1.53125, 1.62500, 1.75000, 2.46875, 1.28125, -2.62500, 0.00000, -1.81250, -0.25000, -0.81250, 0.81250, 0.78125, -1.50000, -0.15625, 0.21875, -0.25000, -0.53125, 1.84375, -0.46875, 3.40625, 3.75000, 1.96875, 1.43750, 2.53125, 0.25000, 1.84375, 1.21875, -0.62500, 0.62500, -0.40625, -0.56250, -1.31250, 0.06250, 3.09375, 2.59375, 1.81250, 0.84375, 0.65625, -1.15625, 1.34375, 1.65625, 1.50000, 1.78125, 2.62500, -1.21875, -0.09375, 0.68750, -2.84375, -1.21875, 0.21875, 1.62500, -1.25000, -0.62500, 0.53125, 2.68750, 1.06250, -0.50000, -1.34375, 0.75000, 0.87500, 0.56250, -1.18750, -0.18750, -0.12500, 3.31250, 2.00000, 1.25000, -1.62500, 0.93750, -0.68750, -2.68750, -0.81250, 1.59375, 1.56250, 0.00000, 0.90625, -0.46875, -1.28125, 1.81250, 1.62500, -2.34375, 0.78125, 0.96875, 2.81250, -0.71875, 0.87500, 0.96875, 1.25000, -0.84375, 0.31250, 2.31250, 1.71875, -0.96875, -0.28125, -1.65625, 2.81250, 0.84375, 2.46875, 1.03125, 2.12500, -1.40625, 1.34375, 1.93750, 0.50000, 0.21875, 0.53125, -1.81250, 3.40625, -2.12500, 1.00000, -3.06250, -0.03125, 1.90625, -0.28125, 1.09375, 0.15625, -0.18750, 2.28125, 3.06250, -3.62500, 0.18750, 3.12500, 2.75000, 3.59375, -0.59375, 1.90625, 0.75000, 3.56250, 2.03125, -0.12500, 0.93750, 1.43750, 0.93750, 0.06250, -2.68750, -0.15625, 0.00000, 0.62500, -0.78125, 1.28125, 0.00000, -1.43750, 0.12500, -0.25000, -1.53125, -1.06250, -1.28125, -0.34375, 1.34375, 1.84375, 0.12500, -0.78125, 0.68750, 1.00000, -0.50000, -1.34375, 0.06250, 1.68750, 1.78125, 2.43750, -0.06250, -1.18750, -1.93750, 1.53125, -0.40625, 0.15625, 3.21875, -0.75000, -1.06250, 1.09375, 3.12500, 0.18750, -1.71875, 2.90625, 0.03125, -0.03125, 0.71875, -1.81250, 1.78125, -0.09375, 3.12500, 1.18750, 0.68750, -1.75000, 0.56250, 1.00000, 0.43750, -2.21875, 1.90625, 1.43750, 0.28125, 2.78125, -1.25000, -2.65625, -1.56250, -1.18750, 3.43750, -3.81250, 1.21875, -0.71875, -1.03125, 0.53125, 0.03125, -0.87500, 0.06250, -0.59375, -2.00000, 0.75000, -2.03125, -1.37500, 0.03125, 0.59375, 0.28125, 2.28125, 0.00000, 1.37500, -2.50000, 0.18750, 1.40625, -0.03125, 1.40625, 0.93750, 1.21875, 2.59375, 0.40625, -1.43750, -1.96875, 1.46875, -0.93750, -2.34375, 0.53125, -1.15625, 1.59375, -2.81250, 0.09375, 0.12500, -0.84375, 2.43750, -3.18750, 0.90625, -2.65625, 2.03125, 0.21875, 1.75000, 1.12500, -1.87500, -1.18750, -0.53125, -1.53125, 0.81250, 0.06250, 1.18750, 0.50000, 0.71875, -0.87500, 2.25000, 2.68750, -1.00000, 1.18750, 0.90625, -1.03125, 2.56250, -0.15625, 1.34375, -1.84375, -2.87500, 1.81250, -1.15625, -2.71875, 1.40625, -2.81250, -2.65625, -0.46875, 2.15625, 1.28125, 3.96875, 1.28125, 2.28125, -0.31250, -0.96875, 0.31250, -1.15625, 2.00000, 1.37500, -0.68750, 1.56250, 0.28125, -0.93750, -1.12500, 0.62500, -0.40625, -1.18750, 2.71875, 0.21875, 2.62500, -1.93750, -1.12500, 1.81250, 0.15625, 0.34375, 0.00000, 0.18750, 0.87500, 1.65625, -0.96875, 0.12500, 1.68750, 1.96875, 0.75000, 1.03125, 1.93750, -1.46875, -1.21875, 1.00000, -1.65625, 3.84375, 2.15625, -0.37500, 0.18750, 1.09375, 0.09375, 0.00000, 2.93750, 0.65625, 1.03125, 1.09375, -1.40625, 1.00000, -0.53125, 0.09375, 0.84375, 1.25000, -0.12500, 1.50000, 1.15625, -0.31250, -2.50000, 0.31250, 0.06250, 0.90625, -1.00000, -1.40625, 0.68750, -0.25000, 1.50000, 1.96875, 1.25000, 3.43750, 3.81250, 1.81250, -0.71875, -0.93750, 0.25000, 1.78125, -2.31250, -0.81250, 0.62500, 1.25000, 0.18750, 2.71875, 1.21875, 0.06250, 0.00000, 0.43750, 2.71875, -0.25000, -2.90625, 2.46875, 0.12500, -1.84375, -0.40625, 1.09375, 2.96875, 2.62500, 1.90625, 0.53125, 0.50000, 2.06250, 0.90625, -0.93750, 1.84375, 3.37500, -1.21875, -0.90625, -1.43750, 1.65625, -0.31250, 0.34375, 0.87500, 0.43750, -0.46875, -0.96875, 1.84375, -1.37500, 0.50000, 0.15625, -2.43750, 1.65625, 0.18750, -2.46875, -1.34375, -1.03125, 0.78125, 0.87500, 2.37500, 0.12500, 3.03125, -0.18750, 0.25000, 0.84375, 1.62500, -2.09375, 0.87500, -1.09375, -1.00000, -1.53125, -1.81250, -0.28125, 1.56250, -1.28125, -0.59375, -2.25000, -0.03125, -0.50000, -1.25000, 0.81250, 3.00000, 0.78125, -1.09375, 2.62500, 0.37500, -0.46875, -0.40625, 0.50000, 0.37500, 0.78125, 1.71875, 1.56250, -2.21875, 1.46875, 0.06250, -0.50000, 2.81250, 1.78125, -0.31250, 0.71875, -1.18750, 2.28125, 2.15625, 2.84375, 0.87500, 3.06250, 0.96875, -0.34375, 0.90625, 0.37500, 1.28125, 2.31250, 2.43750, 1.62500, 0.15625, -1.40625, -1.25000, 1.87500, -1.56250, 2.75000, 1.31250, -2.75000, 0.25000, 1.81250, 0.93750, -0.65625, -0.78125, 2.62500, -0.68750, 1.59375, -2.18750, 0.12500, 0.62500, 1.75000, 1.96875, 0.78125, -1.90625, -0.87500, 1.78125, 0.06250, 1.71875, 0.43750, 0.75000, -1.87500, 1.28125, 1.40625, 1.90625, -0.12500, 2.25000, 0.09375, 2.09375, -0.59375, 2.53125, 0.37500, 0.12500, 1.75000, 3.03125, -0.43750, -3.31250, 1.71875, 1.40625, 3.31250, -1.31250, -1.34375, 0.25000, -0.43750, 1.40625, 0.65625, -2.90625, 1.93750, 0.43750, 0.65625, -0.53125, -1.40625, -2.40625, 0.00000, 1.78125, 2.40625, -1.31250, -1.40625, 1.40625, -1.15625, -0.31250, 0.00000, 1.81250, 0.84375, 0.75000, -1.31250, -0.90625, -0.03125, -0.53125, -1.03125, 1.25000, 1.34375, -2.96875, 2.28125, 2.12500, 2.78125, 0.40625, 0.03125, 0.96875, 1.96875, 2.09375, 0.78125, 0.90625, 0.71875, 3.00000, -1.46875, 0.06250, -0.93750, 2.34375, 0.46875, 0.75000, 0.21875, -1.00000, 0.71875, 1.12500, 1.06250, -1.50000, -0.56250, 1.81250, -0.71875, 0.31250, -0.68750, 0.43750, 2.09375, -0.46875, 2.90625, -0.03125, -1.25000, 1.96875, -2.71875, -1.06250, 2.43750, 1.78125, -0.50000, 0.21875, -1.59375, 0.53125, 0.21875, -0.71875, -0.50000, 2.62500, 2.28125, 0.06250, -0.59375, 0.34375, -0.43750, 0.53125, -1.62500, 0.40625, 1.31250, 0.50000, -0.62500, -0.78125, -1.25000, 1.34375, 3.03125, -0.59375, 2.50000, -3.34375, -0.09375, 0.65625, 0.06250, 0.25000, -1.25000, 1.46875, 2.15625, -0.75000, -2.03125, 0.15625, -1.12500, 2.43750, -2.87500, 0.75000, 1.53125, 1.75000, 0.31250, -1.31250, 1.37500, -1.06250, 3.96875, -0.65625, -0.59375, -2.50000, -3.53125, -0.43750, -1.09375, 1.34375, 1.31250, -0.18750, 0.40625, -0.90625, -0.59375, -0.84375, 0.96875, -3.15625, -2.25000, 2.37500, 0.50000, 0.93750, -0.15625, -3.06250, -0.34375, -1.31250, -1.65625, 2.09375, -0.59375, -0.56250, -2.93750, -0.56250, -2.25000, -0.28125, 1.31250, -2.96875, -1.43750, 0.21875, 2.40625, -2.71875, -0.56250, 0.03125, 2.15625, 3.43750, 0.62500, -0.21875, 0.03125, 0.43750, -0.93750, 0.59375, 1.06250, -0.71875, 0.84375, 0.53125, 1.75000, 0.68750, -0.31250, 2.62500, -1.68750, 0.21875, 0.21875, -2.00000, -0.84375, -1.46875, -2.06250, -1.59375, -2.34375, 0.68750, -0.03125, 0.96875, -0.12500, 1.34375, -3.96875, -0.81250, -2.18750, -1.46875, 2.12500, -0.43750, -2.28125, -0.68750, -0.28125, 0.62500, 1.21875, 1.12500, -2.65625, 0.37500, 2.68750, 0.93750, 0.15625, -0.15625, 0.06250, 1.84375, 1.40625, -1.62500, -1.34375, -2.90625, -0.96875, -1.15625, 2.71875, -0.84375, -1.06250, -0.12500, -0.81250, 0.62500, -1.65625, 0.53125, 0.28125, 0.00000, 3.34375, 1.50000, -0.40625, 0.65625, 0.78125, 2.50000, 0.62500, 1.43750, -1.28125, -2.59375, -1.18750, -0.81250, 0.28125, 0.31250};

#endif

#endif
